svm_type c_svc
kernel_type rbf
gamma 0.25
nr_class 3
total_sv 42
rho -6.684620141828055E-4 0.13106743726606576 0.03371678944284063
label 1 2 3
nr_sv 6 20 16
SV
1.0 0.0 1:-0.666667 2:-0.166667 3:-0.864407 4:-0.916667 
1.0 0.6947832275288648 1:-0.944444 2:-0.25 3:-0.864407 4:-0.916667 
0.0 0.47668056389774177 1:-0.222222 2:1.0 3:-0.830508 4:-0.75 
0.3542911956720463 0.0 1:-0.222222 2:0.5 3:-0.762712 4:-0.833333 
0.28100715425863 0.0 1:-0.388889 2:0.166667 3:-0.762712 4:-0.916667 
1.0 1.0 1:-0.555556 2:0.0833333 3:-0.762712 4:-0.666667 
-0.0 1.0 1:0.5 3:0.254237 4:0.0833333 
-0.0 1.0 1:0.166667 3:0.186441 4:0.166667 
-0.0 1.0 1:0.444444 2:-0.0833334 3:0.322034 4:0.166667 
-0.0 1.0 1:-0.333333 2:-0.75 3:0.0169491 4:-4.03573E-8 
-0.0 1.0 1:0.222222 2:-0.333333 3:0.220339 4:0.166667 
-0.0 0.4595500445929093 1:-0.222222 2:-0.333333 3:0.186441 4:-4.03573E-8 
-0.0 1.0 1:0.111111 2:0.0833333 3:0.254237 4:0.25 
-1.0 0.0 1:-0.666667 2:-0.666667 3:-0.220339 4:-0.25 
-0.0 1.0 1:0.277778 2:-0.25 3:0.220339 4:-4.03573E-8 
-0.0 0.23866854328371806 1:-0.5 2:-0.416667 3:-0.0169491 4:0.0833333 
-0.6352983499306764 0.0 1:-0.611111 2:-1.0 3:-0.152542 4:-0.25 
-0.0 1.0 1:-0.111111 2:-0.166667 3:0.0847457 4:0.166667 
-0.0 1.0 1:-1.32455E-7 2:-0.25 3:0.254237 4:0.0833333 
-1.0 0.0 1:-0.277778 2:-0.25 3:-0.118644 4:-4.03573E-8 
-0.0 0.5045175454283621 1:0.333333 2:-0.0833334 3:0.152542 4:0.0833333 
-0.0 1.0 1:-0.277778 2:-0.166667 3:0.186441 4:0.166667 
-1.0 0.0 1:-0.166667 2:-0.416667 3:0.0508474 4:-0.25 
-0.0 1.0 1:0.0555554 2:-0.833333 3:0.186441 4:0.166667 
-0.0 1.0 1:-0.111111 3:0.288136 4:0.416667 
-0.0 1.0 1:0.111111 2:-0.583333 3:0.322034 4:0.166667 
-0.0 -1.0 1:-0.166667 2:-0.416667 3:0.38983 4:0.5 
-0.0 -1.0 1:0.111111 2:-0.25 3:0.559322 4:0.416667 
-1.0 -1.0 1:-0.666667 2:-0.583333 3:0.186441 4:0.333333 
-0.0 -1.0 1:0.666667 2:-0.25 3:0.79661 4:0.416667 
-0.0 -1.0 1:0.333333 2:-0.583333 3:0.627119 4:0.416667 
-0.0 -1.0 1:0.222222 3:0.38983 4:0.583333 
-0.0 -1.0 1:0.166667 2:-0.416667 3:0.457627 4:0.5 
-0.0 -1.0 1:0.388889 2:-0.166667 3:0.525424 4:0.666667 
-0.0 -1.0 1:-0.222222 2:-0.583333 3:0.355932 4:0.583333 
-0.0 -0.20273613330498935 1:0.166667 3:0.457627 4:0.833333 
-0.0 -1.0 1:0.222222 2:-0.166667 3:0.525424 4:0.416667 
-0.588681606409397 -0.0 1:0.888889 2:0.5 3:0.932203 4:0.75 
-0.5827821850172096 -1.0 1:-0.0555556 2:-0.833333 3:0.355932 4:0.166667 
-0.0 -1.0 1:-0.277778 2:-0.333333 3:0.322034 4:0.583333 
-0.0 -1.0 1:0.111111 2:-0.416667 3:0.322034 4:0.416667 
-0.0 -1.0 1:0.333333 2:0.0833333 3:0.59322 4:0.666667 
